{
    "version": "0.7.0",
    "metadata": {
        "date": {
            "year": 2026,
            "month": 6,
            "day": 26,
            "hour": 19,
            "minute": 39,
            "second": 4
        },
        "loudness": -17.384275436401367,
        "gain": 0.31113920894975106
    },
    "architecture": "HyperWaveNet",
    "config": {
        "layers": [
            {
                "input_size": 1,
                "condition_size": 1,
                "head": {
                    "out_channels": 1,
                    "kernel_size": 1,
                    "bias": true
                },
                "channels": 3,
                "kernel_sizes": [
                    2,
                    2
                ],
                "dilations": [
                    1,
                    2
                ],
                "activation": [
                    {
                        "type": "Tanh"
                    },
                    {
                        "type": "Tanh"
                    }
                ],
                "bottleneck": 3,
                "head1x1": {
                    "active": false,
                    "out_channels": 1,
                    "groups": 1
                },
                "layer1x1": {
                    "active": true,
                    "groups": 1
                },
                "groups_input": 1,
                "groups_input_mixin": 1,
                "conv_pre_film": {
                    "active": false,
                    "shift": true,
                    "groups": 1
                },
                "conv_post_film": {
                    "active": false,
                    "shift": true,
                    "groups": 1
                },
                "input_mixin_pre_film": {
                    "active": false,
                    "shift": true,
                    "groups": 1
                },
                "input_mixin_post_film": {
                    "active": false,
                    "shift": true,
                    "groups": 1
                },
                "activation_pre_film": {
                    "active": false,
                    "shift": true,
                    "groups": 1
                },
                "activation_post_film": {
                    "active": false,
                    "shift": true,
                    "groups": 1
                },
                "layer1x1_post_film": {
                    "active": false,
                    "shift": true,
                    "groups": 1
                },
                "head1x1_post_film": {
                    "active": false,
                    "shift": true,
                    "groups": 1
                },
                "gating_mode": [
                    "none",
                    "none"
                ],
                "secondary_activation": [
                    null,
                    null
                ],
                "slimmable": null
            }
        ],
        "head": null,
        "head_scale": 1.0,
        "hypernet": {
            "hidden_sizes": [
                4
            ],
            "activation": "ReLU",
            "mode": "low_rank",
            "rank": 2,
            "selector": {
                "exclude_suffixes": [
                    "_conv.weight"
                ]
            },
            "delta_map": [
                {
                    "name": "_layer_arrays.0._rechannel.weight",
                    "mode": "full",
                    "numel": 3,
                    "export_offset": 0
                },
                {
                    "name": "_layer_arrays.0._layers.0._conv.bias",
                    "mode": "full",
                    "numel": 3,
                    "export_offset": 21
                },
                {
                    "name": "_layer_arrays.0._layers.0._input_mixer.weight",
                    "mode": "full",
                    "numel": 3,
                    "export_offset": 24
                },
                {
                    "name": "_layer_arrays.0._layers.0._layer1x1.weight",
                    "mode": "low_rank",
                    "numel": 9,
                    "rank": 2,
                    "out_features": 3,
                    "rest_features": 3,
                    "export_offset": 27
                },
                {
                    "name": "_layer_arrays.0._layers.0._layer1x1.bias",
                    "mode": "full",
                    "numel": 3,
                    "export_offset": 36
                },
                {
                    "name": "_layer_arrays.0._layers.1._conv.bias",
                    "mode": "full",
                    "numel": 3,
                    "export_offset": 57
                },
                {
                    "name": "_layer_arrays.0._layers.1._input_mixer.weight",
                    "mode": "full",
                    "numel": 3,
                    "export_offset": 60
                },
                {
                    "name": "_layer_arrays.0._layers.1._layer1x1.weight",
                    "mode": "low_rank",
                    "numel": 9,
                    "rank": 2,
                    "out_features": 3,
                    "rest_features": 3,
                    "export_offset": 63
                },
                {
                    "name": "_layer_arrays.0._layers.1._layer1x1.bias",
                    "mode": "full",
                    "numel": 3,
                    "export_offset": 72
                },
                {
                    "name": "_layer_arrays.0._head_rechannel.weight",
                    "mode": "full",
                    "numel": 3,
                    "export_offset": 75
                },
                {
                    "name": "_layer_arrays.0._head_rechannel.bias",
                    "mode": "full",
                    "numel": 1,
                    "export_offset": 78
                }
            ]
        },
        "params": [
            {
                "name": "gain",
                "min": 0.0,
                "max": 10.0,
                "default": 5.0,
                "type": "continuous",
                "enum_names": null
            },
            {
                "name": "mode",
                "min": 0,
                "max": 2,
                "default": 1,
                "type": "switch",
                "enum_names": [
                    "clean",
                    "crunch",
                    "lead"
                ]
            }
        ]
    },
    "weights": [
        -0.033206939697265625,
        -0.27378296852111816,
        0.1275160312652588,
        0.04617265984416008,
        -0.12165467441082001,
        -0.30576014518737793,
        0.014612166211009026,
        0.2861798107624054,
        -0.1350380927324295,
        -0.3376919627189636,
        -0.1968698501586914,
        0.3565051853656769,
        -0.08024559170007706,
        0.08775582909584045,
        -0.3729144036769867,
        -0.039141155779361725,
        -0.07756880670785904,
        0.18878203630447388,
        -0.1035381481051445,
        -0.10343293100595474,
        -0.39690977334976196,
        -0.3471289873123169,
        -0.26652634143829346,
        0.38083741068840027,
        0.922831654548645,
        0.3740133047103882,
        -0.43745505809783936,
        -0.48720604181289673,
        0.30434897541999817,
        0.24018025398254395,
        -0.18135054409503937,
        -0.432189404964447,
        0.2465210109949112,
        -0.5611519813537598,
        0.14825105667114258,
        0.0983196571469307,
        0.32131245732307434,
        0.09678381681442261,
        0.22859403491020203,
        0.26084765791893005,
        -0.37273022532463074,
        0.06735175848007202,
        0.11940684914588928,
        0.38461264967918396,
        0.11775888502597809,
        -0.27528712153434753,
        -0.2859601676464081,
        -0.3092728853225708,
        0.10884138941764832,
        -0.0027549408841878176,
        -0.22867529094219208,
        -0.31989970803260803,
        -0.21622295677661896,
        0.19990979135036469,
        -0.2818709909915924,
        -0.09409669786691666,
        0.0730278342962265,
        -0.24773629009723663,
        -0.2365303337574005,
        0.1940222978591919,
        0.8765443563461304,
        0.7468141317367554,
        0.32548725605010986,
        0.21741312742233276,
        0.5518378019332886,
        -0.18648238480091095,
        -0.3758758306503296,
        -0.18980060517787933,
        -0.570485532283783,
        -0.3377436697483063,
        0.23666121065616608,
        -0.5022892355918884,
        -0.32065317034721375,
        0.2553032338619232,
        -0.35832756757736206,
        -0.2650772035121918,
        -0.35028374195098877,
        -0.5098397135734558,
        -0.4562312662601471,
        1.0,
        -0.1181025505065918,
        -0.2184501737356186,
        0.31866005063056946,
        -0.1883711814880371,
        0.2172783613204956,
        0.27040234208106995,
        0.2635791599750519,
        -0.06333833187818527,
        -0.2736942172050476,
        0.25928956270217896,
        0.08035029470920563,
        0.4202980697154999,
        -0.06777683645486832,
        0.4751342236995697,
        0.4736435115337372,
        -0.16521641612052917,
        -0.3945310115814209,
        -0.3943712115287781,
        0.4039378762245178,
        0.25596609711647034,
        0.023404819890856743,
        -0.007885622791945934,
        0.07218300551176071,
        0.013302470557391644,
        0.008322766982018948,
        0.0437190942466259,
        -0.007173711899667978,
        -0.005580466706305742,
        0.04659133404493332,
        0.06295046210289001,
        0.1002490296959877,
        0.0026868449058383703,
        0.030902832746505737,
        -0.020640110597014427,
        -0.042053233832120895,
        -0.115802101790905,
        -0.010793156921863556,
        -0.037127409130334854,
        0.02813604287803173,
        0.012981370091438293,
        -0.008698049001395702,
        -0.03393731638789177,
        0.04691304266452789,
        0.024443499743938446,
        0.06016119197010994,
        0.004226743709295988,
        -0.06000697612762451,
        -0.0002392930764472112,
        -0.025903740897774696,
        -0.01533520221710205,
        -0.07904969900846481,
        0.08533217012882233,
        0.010276283137500286,
        -0.022516485303640366,
        -0.028653854504227638,
        -0.02776792086660862,
        0.02971615269780159,
        0.07709713280200958,
        0.02536672167479992,
        -0.029551653191447258,
        -0.06626629829406738,
        0.009427684359252453,
        -0.0034536344464868307,
        -0.02474626712501049,
        -0.07479574531316757,
        -0.009691856801509857,
        0.022275609895586967,
        0.06626374274492264,
        0.07545609772205353,
        0.10409777611494064,
        0.08533557504415512,
        0.11901837587356567,
        -0.05628008767962456,
        -0.01584990695118904,
        -0.05462341383099556,
        -0.004259714391082525,
        0.016380716115236282,
        -0.03803535923361778,
        -0.0799541026353836,
        0.0009243334061466157,
        -0.03752133250236511,
        0.009270398877561092,
        0.03105691634118557,
        0.03190907835960388,
        -0.0001651936472626403,
        -0.026722034439444542,
        0.058434393256902695,
        0.019725138321518898,
        0.09707309305667877,
        0.03957490622997284,
        -0.0010125914122909307,
        -0.02185847796499729,
        -0.07676436007022858,
        -0.020633956417441368,
        0.04831516370177269,
        0.08123915642499924,
        -0.018280988559126854,
        -0.06512202322483063,
        0.004970173351466656,
        0.022091101855039597,
        0.003662302391603589,
        0.05566592141985893,
        0.014113363809883595,
        0.021711282432079315,
        -0.04012465104460716,
        -0.06475930660963058,
        -0.03750908002257347,
        -0.06559830158948898,
        0.0103208152577281,
        -0.016672393307089806,
        -0.021441500633955002,
        0.011645914055407047,
        0.03984436020255089,
        -0.00924206618219614,
        -0.018507355824112892,
        -0.06051406264305115,
        -0.03507618233561516,
        0.0518343411386013,
        -0.03018350712954998,
        -0.06393827497959137,
        0.004647511523216963,
        -0.033304985612630844,
        0.03040236048400402,
        -0.036500994116067886,
        0.06875189393758774,
        0.03298155590891838,
        0.023827852681279182,
        -0.050815362483263016,
        0.009018349461257458,
        0.005416593514382839,
        -0.03774116560816765,
        0.012215926311910152,
        0.05701753497123718,
        -0.004494103137403727,
        0.03648978844285011,
        -0.09226595610380173,
        -0.0012509970692917705,
        0.06846905499696732,
        0.13285116851329803,
        0.04925597086548805,
        0.018859095871448517,
        0.055061738938093185,
        -0.05713890865445137,
        0.0018792918417602777,
        0.1348138302564621,
        0.06178818270564079,
        0.027141490951180458,
        0.026276517659425735,
        -0.04146834462881088,
        -0.07036282867193222,
        0.08134233206510544,
        0.008613660000264645,
        -0.0805751234292984,
        -0.023972390219569206,
        -0.007167546544224024,
        -0.015864750370383263,
        0.028682729229331017,
        0.04989656060934067,
        0.027180472388863564,
        0.003940219525247812,
        0.043143004179000854,
        -0.0009744760463945568,
        0.04955235868692398,
        -0.03888672590255737,
        -0.014969222247600555,
        -0.009388904087245464,
        0.09579487890005112,
        0.03450976312160492,
        -0.11608507484197617,
        -0.0598205104470253,
        0.009851408191025257,
        -0.05886661633849144,
        0.005677608773112297,
        0.05523628741502762,
        -0.06975860148668289,
        0.023755935952067375,
        -0.040686290711164474,
        0.04621182009577751,
        -0.01236706506460905,
        -0.07076936960220337,
        0.049371831119060516,
        -0.07439037412405014,
        0.029334375634789467,
        0.007914774119853973,
        0.005512292962521315,
        -0.04094063863158226,
        0.03163832053542137,
        -0.09584398567676544,
        0.06559460610151291,
        -0.010491929017007351,
        0.039086565375328064,
        0.049484625458717346,
        0.020735668018460274,
        -0.07544752955436707,
        0.10180184990167618,
        0.006579522974789143,
        -0.025553688406944275,
        -0.08568639308214188,
        -0.025503238663077354,
        -0.023744653910398483,
        -0.027591699734330177,
        -0.14445306360721588,
        -0.07549905776977539,
        0.05120576545596123,
        -0.01716679148375988,
        0.07856324315071106,
        0.009580744430422783,
        0.01899709738790989,
        0.048556238412857056,
        0.07251250743865967,
        -0.002595440950244665,
        -0.031421542167663574,
        -0.007100535091012716,
        -0.02670728974044323,
        -0.026168951764702797,
        0.04307521507143974,
        0.003736210986971855,
        0.02799847535789013,
        0.026570184156298637,
        0.06175452098250389,
        -0.07388713955879211,
        -0.0877835601568222,
        0.0038083100225776434,
        -0.05393017455935478,
        -0.08017095178365707,
        0.0029049243312329054,
        -0.03151232376694679,
        0.03733208402991295,
        -0.0032012437004595995,
        0.05192127823829651,
        0.04534117504954338,
        -0.023775678128004074,
        0.026194607838988304,
        0.01090224739164114,
        0.003126197261735797,
        0.0324050597846508,
        -0.001968629192560911,
        -0.040073592215776443,
        -0.024777216836810112,
        -0.01807570271193981,
        0.10746882110834122,
        -0.04543878883123398,
        -0.033551301807165146,
        -0.029020387679338455,
        -0.004278169479221106,
        0.06972601264715195,
        0.02984500490128994,
        -0.024142418056726456,
        0.1018586978316307,
        -0.11073771864175797,
        -0.034186478704214096,
        0.025817889720201492,
        0.027940167114138603,
        0.039587926119565964,
        -0.009233788587152958,
        -0.036588624119758606,
        -0.004032595548778772,
        0.007186600007116795,
        0.02917984500527382,
        0.06740777939558029,
        -0.04068656265735626,
        0.04099974036216736,
        -0.03165867179632187,
        0.06473773717880249,
        0.07314146310091019,
        -0.061600036919116974,
        0.03128353878855705,
        -0.06115635111927986,
        -0.031160971149802208,
        -0.010812266729772091,
        -0.02443380281329155,
        0.03934776410460472,
        0.005379536654800177,
        0.025715021416544914,
        0.03529239073395729,
        0.03217282518744469,
        -0.06283319741487503,
        0.023921888321638107,
        -0.08326409757137299,
        -0.06850183755159378,
        0.07717709243297577,
        0.056451793760061264,
        0.021317970007658005,
        -0.05112150311470032,
        -0.017306774854660034,
        -0.01671569235622883,
        0.020417338237166405,
        0.05631829425692558,
        0.09675287455320358,
        -0.018124161288142204,
        -0.07536036521196365,
        -0.025434916839003563,
        -0.06212988495826721,
        0.06422750651836395,
        0.012188614346086979,
        0.03055189736187458,
        -0.0007265364984050393,
        -0.03323762118816376,
        0.02587064914405346,
        -0.08700443804264069,
        0.027057090774178505,
        0.07694792002439499,
        0.05430245026946068,
        0.062320251017808914,
        0.001720318105071783,
        0.07499901205301285,
        0.03779035061597824,
        -0.06853735446929932,
        0.04366152733564377,
        0.0032563351560384035,
        0.038662053644657135,
        -0.04850692301988602,
        -0.04438384622335434,
        -0.015915853902697563
    ],
    "sample_rate": 48000.0
}